digraph Tree {
node [shape=box, style="filled, rounded", color="black", fontname=helvetica] ;
edge [fontname=helvetica] ;
0 [label="petal length (cm) <= 2.45\ngini = 0.66\nsamples = 101\nvalue = [43, 60, 47]\nclass = versicolor", fillcolor="#e6fcef"] ;
1 [label="gini = 0.0\nsamples = 32\nvalue = [43, 0, 0]\nclass = setosa", fillcolor="#e58139"] ;
0 -> 1 [labeldistance=2.5, labelangle=45, headlabel="True"] ;
2 [label="petal width (cm) <= 1.65\ngini = 0.49\nsamples = 69\nvalue = [0, 60, 47]\nclass = versicolor", fillcolor="#d4f9e4"] ;
0 -> 2 [labeldistance=2.5, labelangle=-45, headlabel="False"] ;
3 [label="petal width (cm) <= 1.45\ngini = 0.14\nsamples = 39\nvalue = [0, 59, 5]\nclass = versicolor", fillcolor="#4ae78c"] ;
2 -> 3 ;
4 [label="petal width (cm) <= 1.35\ngini = 0.04\nsamples = 27\nvalue = [0, 44, 1]\nclass = versicolor", fillcolor="#3de684"] ;
3 -> 4 ;
5 [label="gini = 0.0\nsamples = 21\nvalue = [0, 33, 0]\nclass = versicolor", fillcolor="#39e581"] ;
4 -> 5 ;
6 [label="sepal length (cm) <= 6.35\ngini = 0.15\nsamples = 6\nvalue = [0, 11, 1]\nclass = versicolor", fillcolor="#4be78c"] ;
4 -> 6 ;
7 [label="petal length (cm) <= 5.1\ngini = 0.32\nsamples = 3\nvalue = [0, 4, 1]\nclass = versicolor", fillcolor="#6aeca0"] ;
6 -> 7 ;
8 [label="gini = 0.0\nsamples = 2\nvalue = [0, 4, 0]\nclass = versicolor", fillcolor="#39e581"] ;
7 -> 8 ;
9 [label="gini = 0.0\nsamples = 1\nvalue = [0, 0, 1]\nclass = virginica", fillcolor="#8139e5"] ;
7 -> 9 ;
10 [label="gini = 0.0\nsamples = 3\nvalue = [0, 7, 0]\nclass = versicolor", fillcolor="#39e581"] ;
6 -> 10 ;
11 [label="petal length (cm) <= 4.95\ngini = 0.33\nsamples = 12\nvalue = [0, 15, 4]\nclass = versicolor", fillcolor="#6eeca3"] ;
3 -> 11 ;
12 [label="gini = 0.0\nsamples = 9\nvalue = [0, 15, 0]\nclass = versicolor", fillcolor="#39e581"] ;
11 -> 12 ;
13 [label="gini = 0.0\nsamples = 3\nvalue = [0, 0, 4]\nclass = virginica", fillcolor="#8139e5"] ;
11 -> 13 ;
14 [label="petal length (cm) <= 4.85\ngini = 0.05\nsamples = 30\nvalue = [0, 1, 42]\nclass = virginica", fillcolor="#843ee6"] ;
2 -> 14 ;
15 [label="sepal width (cm) <= 3.1\ngini = 0.44\nsamples = 3\nvalue = [0, 1, 2]\nclass = virginica", fillcolor="#c09cf2"] ;
14 -> 15 ;
16 [label="gini = 0.0\nsamples = 2\nvalue = [0, 0, 2]\nclass = virginica", fillcolor="#8139e5"] ;
15 -> 16 ;
17 [label="gini = 0.0\nsamples = 1\nvalue = [0, 1, 0]\nclass = versicolor", fillcolor="#39e581"] ;
15 -> 17 ;
18 [label="gini = 0.0\nsamples = 27\nvalue = [0, 0, 40]\nclass = virginica", fillcolor="#8139e5"] ;
14 -> 18 ;
}